20 200
http://dbpedia.org/resource/Institute_of_Gerontology -0.54338187 0.27325484 0.5811868 -0.8531162 -0.56279224 -0.034829978 -0.16122983 -0.8056861 0.35712525 0.28138992 0.46079892 0.059659507 0.46961498 0.50851303 -0.35530135 0.063400246 0.31720197 -0.1860261 -0.6128955 -0.13811472 0.24817468 0.5220938 -0.10485233 -0.23186266 -0.0028573347 -0.43572897 -0.17525841 -0.8049644 0.748234 -0.13672933 0.101506256 -0.3246153 -0.674243 0.25528565 0.9132885 0.030833371 0.51095766 -0.45456734 -0.018846676 0.36214018 0.18686116 -0.22442839 -0.09752132 -0.42947644 0.6313209 -0.1885879 -0.003186817 0.0030399372 0.07464852 -0.08590874 0.057917997 -0.3385196 -0.46757317 0.37290466 -0.43211722 -0.0759191 -0.15141544 -0.1234334 -0.8089025 -1.3558418 -0.40908474 -0.5813776 0.49887174 -0.11048008 -0.15802965 0.1911167 -0.10881518 -0.5712414 -0.16477875 0.40304425 0.25439852 0.014816544 -0.17778601 0.35688743 -0.10501112 -0.18243667 -0.45715174 0.9487614 0.29617697 0.119803 0.16172816 0.31478578 -0.122128025 -0.14182939 -0.49909067 -0.059660237 -0.10169424 -0.4063276 0.44775876 -0.14839548 -0.37082458 0.37705815 -0.30858243 -0.070886075 0.6409065 0.20966786 0.09660838 0.119888544 0.61635244 0.17931144 0.16099821 -0.2922644 -0.5297155 0.07138842 0.55667406 -0.47202313 -0.269952 0.3703386 0.17777231 -0.5502981 -0.17484264 -0.192112 -0.4469389 -0.18224034 -0.36723527 0.46369538 0.14226036 0.39809567 0.12536232 -0.04885329 -0.20161402 0.15990414 0.30117318 -0.63082945 -0.14614448 0.11100725 0.7535562 -0.27588716 -0.038142923 0.17467916 -0.001433135 0.54184425 0.2355144 -0.3359125 0.12090699 0.035648957 0.73424304 -0.008471179 0.077536665 0.66778135 0.1209648 0.13462627 -0.5107947 0.15500404 -0.60204315 -0.40104398 -0.58038044 -0.4544663 -0.19367324 0.054874472 -0.38666126 -0.33992207 -0.1358653 -0.17109342 -0.03967202 -0.092761554 -0.17654088 0.2675574 -0.30301094 0.39295 -0.6212556 -0.10403659 -0.55312276 -0.35976934 0.5479005 -0.33310822 0.45794314 -0.19075608 -0.21193324 0.47070357 0.1726536 0.15698561 -0.22180481 -0.5067083 0.51902527 -0.5614538 0.6365814 0.21640003 0.17607822 -0.036386423 0.23065425 -0.70486206 -0.021518854 0.5328594 -0.5272457 0.28450945 -0.5429713 0.4028913 -0.21616279 0.4292799 0.7258758 0.38318732 -1.0841488 -0.22323959 -0.15025151 0.059791427 0.49430504 -0.21126758 0.40273592 -0.2742067
http://dbpedia.org/ontology/Beverage 1.1540984 1.0621982 -1.2176747 -1.3609079 1.397998 -0.22909726 1.6492517 -0.122179955 -2.889854 0.30703333 -0.6635745 1.5981848 -0.35946098 0.46052822 0.69969594 0.64538527 0.75702417 2.0482993 -1.1203763 0.59052277 1.5317061 -0.2853189 -0.7879966 0.9987742 -1.8696479 0.110667765 -0.89870703 -0.6370653 1.2450287 -0.5973207 0.32726806 -0.5259785 -0.41979104 0.50651205 -1.054396 -0.11630473 -0.41034737 -0.8855132 -0.98624367 1.5184752 -0.36215258 -1.6209775 0.5131186 -0.26045832 0.7450849 0.45723015 0.52051103 -0.43348178 -0.1790909 -0.37307653 -0.47845632 1.8388182 -1.2334397 1.139577 0.75464374 -0.54240084 0.3346266 -1.6523491 0.26975298 -0.2756282 0.2909436 0.8018132 1.8419782 1.4608328 0.83749676 -1.931017 0.004733745 -2.019666 -0.108506575 -0.1799098 -0.37688953 0.77956915 -0.5672151 1.9839182 1.7192053 -0.17113593 -0.9492355 1.0493352 0.7297729 -0.26064128 -1.5581061 -0.17363822 -0.016001102 -0.9815199 0.5809437 2.105186 -0.18662594 -2.0952847 1.8423301 0.027071327 -0.4240927 -1.2954143 0.21749793 -1.4178599 -0.99691516 -0.17484184 -0.9146457 1.6246154 2.5375822 -1.9473661 -0.43186834 -1.1928235 1.6211278 1.5401458 0.6373374 1.3130034 1.1099325 2.1222906 -2.4890268 0.85720795 -1.1791731 -0.35115662 -1.2357501 -0.8554655 0.4691887 1.0943809 -1.271669 -2.099695 0.6118408 -0.82308114 -0.02724205 0.4462635 -0.21291152 -2.9093008 1.2454902 -1.7262392 0.13940689 -0.9614338 -0.6025099 1.204322 0.9800104 -1.162908 0.27111787 0.77426064 1.8161908 -0.27983546 0.1049373 -0.054742083 0.3114594 0.38116735 0.19468383 0.18025498 0.28718784 1.6257672 -0.31707394 -0.6312317 1.4341266 0.39746913 0.35025135 -0.25447595 1.175903 1.5864633 -1.6498876 0.15626767 1.7943969 1.9275991 0.012873115 0.13655302 -0.45894843 -0.40776074 -2.3033404 -0.97390026 0.33675522 0.94727415 -0.86340404 -0.3745646 -0.6600329 0.9608186 1.3630134 0.44756258 0.31189603 -1.6074154 0.13717909 0.9394686 0.5826267 -1.4403814 0.63934726 -0.66740423 -1.4141665 1.2832395 0.6537829 0.6884365 -0.824243 -0.3150761 -0.14863305 2.5477865 0.7312292 -0.22553788 -0.063403964 0.14611915 0.25087434 -1.6364328 -2.989437 -1.0401903 -1.2332113 -0.19753787 0.025014376 -1.2970626 -0.10857788 -2.046075
http://dbpedia.org/ontology/Noble 1.747342 -1.0238584 -1.3064252 -1.779301 0.82249 2.0952127 0.6769994 -1.8447541 -0.83687586 0.7198155 0.43038854 1.0748174 -2.0748854 2.173775 1.5291985 -1.0420172 1.2548113 1.0159054 -2.04647 2.286447 0.36984488 0.7832613 -1.88675 1.3517811 -2.1797905 0.5480567 -1.3207676 -2.7714376 2.4383883 -2.390272 -0.061588936 -1.3825524 -1.4470445 0.095773034 -2.5119846 -0.43127832 -1.9667321 -2.1015182 -0.375247 0.76453984 -0.3408015 -3.3149524 0.1178928 -0.1401949 -1.308888 0.035003897 -0.3442931 -2.8727355 0.16521491 -1.1654484 0.4118984 1.4430933 -0.60600346 -0.023351314 1.4362686 0.18202966 -0.4502293 -0.27541134 0.19159228 -0.7503526 0.29696795 0.8185414 2.3936574 0.84285444 0.7608074 -1.6942809 -0.7505774 -1.8518589 0.53567 -1.3306041 -1.0909055 -1.9518898 -2.0908723 0.92008257 2.7690842 -1.2420683 0.8121086 2.590532 -1.208535 -1.263496 -1.0067859 -1.4283515 1.063102 -0.184319 -0.98532397 -0.17536323 1.3111712 -2.1757793 2.1056688 1.5135571 -1.9244583 -1.4930398 -0.5325714 -1.5382518 -1.0296286 0.71333796 -1.0074041 1.3763932 1.2223235 -1.6667565 -1.1092403 0.69599736 0.6631287 0.17546558 -0.39470637 0.076797694 0.20261146 0.20548594 -0.7760513 1.9396725 -2.2561743 0.40202224 -2.5860612 1.3234719 1.1262771 1.0740702 -1.0467012 -0.36742994 0.24505785 -2.1922107 1.2892396 1.5324003 -0.7156767 -2.9624245 1.3156847 0.9962542 -0.4180707 -1.455836 0.8657599 2.1472275 1.9581679 -1.0746527 0.98834544 1.0177885 2.0581915 -1.9330095 -0.8376107 -0.92588824 -0.7647668 1.1937596 -0.813354 -1.6791276 -1.9492751 -0.13359787 0.72545654 -2.1875284 0.710068 -0.776685 0.7550472 1.4820278 0.16846667 1.161051 -2.1232433 -0.6009478 1.2894746 0.5801856 -1.0452099 -1.8884633 0.032952208 -0.42150664 -0.8017109 0.08315105 -0.6139407 0.96327156 -1.4075614 -1.4131844 0.6067597 -0.82353556 1.7100184 -0.95741194 -0.9726147 -1.1295332 0.14228542 1.5915177 1.3061627 -1.3941298 0.2031839 -0.9900678 -2.1575427 2.0887895 0.07882921 0.39413118 -1.86344 -3.0432723 2.2075894 -0.04369775 3.2630196 -0.56556016 0.74489087 -1.0525047 0.6430776 -3.339159 -3.2265038 -1.067229 -0.40674976 0.8596069 -1.0871204 0.036619287 1.2231948 -1.535484
http://dbpedia.org/ontology/SportsTeam 0.89763993 0.013804657 -0.9416149 -1.5062683 1.1222011 2.0403137 0.9576306 -2.026745 -2.5274384 0.37735635 -1.2046175 2.2595148 -1.0727863 0.942555 0.24877603 -0.6774386 0.5353616 3.184152 -0.51875234 2.1985312 2.0247111 -1.1583134 -1.9577386 0.87149954 -3.041682 0.73375624 -1.9735593 -0.7481869 0.2814332 -0.6751486 0.13565043 -1.1379157 -1.6238078 0.3594107 -0.6880253 0.5950031 -1.8515009 -0.6070276 0.31417465 0.9432498 0.41247106 -2.8059676 -0.13384818 0.3473554 0.470268 -0.7532175 -1.0523534 -0.49266604 0.71671164 -0.9559592 0.6760244 1.1709005 0.333898 0.15617226 1.4133301 0.80802315 -0.07089309 -1.9544986 -0.074895136 -0.49853346 0.46169466 -0.19751891 2.8430176 0.23614556 0.8225326 -0.7560117 -1.4918647 -0.6138993 0.6215313 -1.2825595 -0.69553035 -0.9828764 -1.2005126 0.8105234 2.6984787 -0.6601235 0.68028754 2.0464895 1.0878798 1.1238648 -1.2980838 -1.0832524 0.13103367 -0.6197632 1.1693949 -1.1831193 -0.3220945 -2.6928697 1.4160904 -0.6588177 -0.49424312 -0.9878732 0.3074416 -1.2515169 -1.2354549 0.5472768 -1.73801 2.602186 3.8506083 -2.66855 -0.7086426 0.1707206 1.6756816 2.586756 -0.20208533 0.057873968 1.5934162 2.6174803 -0.09123516 0.5702163 -1.1664416 -0.13004282 -2.9049299 0.31653604 0.63192606 1.2654742 -2.3524127 -1.838934 0.24422331 -0.76214105 1.4811097 2.0147629 -0.6735933 -2.6636374 1.6171302 0.02729279 0.34982172 0.0762238 -0.102303475 1.2605973 1.4103856 -0.744486 0.15979876 1.0300385 2.0521312 -2.2201753 1.0393257 -0.105078265 0.2951239 0.65549207 -1.1377136 -0.463164 -1.3388314 1.7495705 0.9916224 -1.9587408 1.8904744 -0.7632081 0.44202456 1.4599311 1.6303777 2.3232336 -0.939846 -0.78260344 1.1562101 0.25532416 0.3735109 -0.89570206 -0.7813998 -0.9186629 -1.380265 0.35488042 0.9935397 0.6858038 -2.378988 -1.016412 -0.7235813 -0.1767219 2.1027977 -0.019716898 0.6523516 0.23568344 -0.7829705 0.5756823 0.6250662 -0.88187796 0.669339 -0.44165775 -1.4790181 0.025244229 -0.36458737 1.1938262 -0.5310566 -1.0161551 0.9106978 -0.37591276 2.3084295 -0.9338528 1.3187742 -1.2068919 -0.30526504 -2.0218728 -2.7114205 -0.7862673 -1.9035711 0.46475518 -0.2325696 -1.8216234 -0.6166507 -1.0735567
http://dbpedia.org/ontology/Lake -0.32162648 -0.8048942 -0.7722345 -2.487477 -0.049132645 2.0427256 0.12166564 -0.30687162 -2.2505386 0.74069124 0.10720873 1.103309 -1.7128894 0.95762783 1.2758578 0.27326354 -0.78194016 0.5087296 -2.1043289 1.2906452 1.5764937 -2.1723268 -2.2913644 0.8244135 -2.7341056 1.4483402 -1.0266461 -0.62599903 2.094578 -1.3524265 -1.0484016 -0.6064841 -1.5453444 -0.2654561 -1.7747611 -0.58996344 -1.010139 -0.7534748 -1.6930125 0.7801965 0.83007216 -2.0976067 -0.9365363 1.1347362 -1.2228713 -0.6572615 -0.40880093 -1.432171 -0.7735365 -1.6104574 0.5726171 0.6148112 -0.21352357 1.9763532 0.83668095 -0.6060807 -0.44494486 -0.722157 0.6547951 -1.6043369 0.7314027 0.10209997 1.9762398 0.87180203 1.1802417 -0.7510219 -0.15635167 0.40279153 0.6388599 -0.10272164 -0.7125946 -0.40066895 -2.0418975 0.11840785 1.5471244 -1.6259667 -0.61696124 3.4400647 0.58752745 -0.4445145 -1.3853647 0.061715495 0.25101334 0.48158115 0.2522651 0.566142 -1.4900707 -1.0768778 3.2070396 0.3578568 0.23532122 -0.06918482 -0.7962231 -1.6865758 0.3174837 -0.8512628 -0.54852307 1.3352605 3.509466 -1.5288762 0.0006414041 -1.6589514 1.8309559 -0.36105746 -0.5868017 0.82982683 1.0540287 2.8805397 -1.7872344 1.0620748 -1.7349882 -0.20359342 -1.465669 0.1378369 -0.037182074 0.90613294 0.011324801 -0.61383015 -0.24270973 -0.51712185 2.121617 2.3255827 -0.093185574 -2.6067019 1.2421843 -2.1719148 1.2327198 -0.3941994 1.2517018 1.170127 -0.4886393 -0.9082033 0.38368618 1.4477768 1.9310387 -2.668757 0.28679305 -0.41400856 1.4930123 -0.05340349 -1.6256741 -1.6652429 0.15308745 0.887179 1.9419285 -2.330224 1.2104439 2.203242 0.5100231 0.8107036 2.204702 2.1394439 0.23253831 0.16972451 0.6854945 0.0944169 0.010234019 -0.77933145 -1.2719742 -1.857103 -2.3966744 -0.15906654 -0.25523636 1.357861 -1.9484867 1.088313 0.2757762 0.16908123 2.0712805 0.62648034 0.42197162 -1.7298002 0.16141655 1.3759638 -0.41411346 -0.6578697 0.5967251 -0.5304039 -2.4274266 0.9549789 0.20631392 0.5261262 -1.8519305 -0.91981405 1.554016 2.8095663 3.8100622 -0.4484914 -0.8524251 0.54249686 -0.6348452 -2.592969 -1.5111017 -0.44542 -0.8138459 -0.6474209 -2.2712364 -0.4645501 -1.0073949 0.013665855
http://dbpedia.org/ontology/Skier 1.3113223 -0.77049196 -1.4313307 -1.1902164 1.1381993 1.2180696 0.34939447 -1.5915376 -1.4183681 0.114163704 0.0012814035 -0.28560162 -0.0031192766 1.417148 0.68305635 -0.111943044 0.45972258 0.45938677 -1.0299524 2.102731 0.2207094 0.44645122 -1.6795022 0.70186746 -2.9330435 1.113489 -1.5930338 -1.7722198 1.5455409 -2.0762303 -1.4363339 -1.885276 -0.64678925 1.7993721 -1.4790499 -0.47905406 -2.9400206 -1.2493867 -1.0805396 0.20974597 -0.75553554 -3.298108 0.060488816 0.51118064 -0.42382708 -1.0664461 1.0781983 -3.2945442 0.9964679 -2.7764752 0.9251102 0.66244113 -1.5483739 -0.7970066 1.0354398 -1.3202707 0.08437423 -1.2970492 -0.3155184 0.18522386 1.6434467 2.2367852 2.1818845 1.0383253 1.5711548 -0.6142228 -0.83736956 -0.74026704 -0.21598983 -0.55493236 -0.55942875 -0.87791353 -2.5161138 1.4447981 1.538832 -0.4474791 -1.014228 2.2262573 -0.4468833 -0.47858948 -2.5998127 -1.3208833 0.038121462 -0.16378452 0.07460467 0.43637604 0.010111888 -2.0185254 1.9121323 1.8827671 -0.61206007 -1.9623139 -0.047419038 -1.0286375 -2.324556 -0.2048662 -1.2819868 0.9178157 2.2101457 -1.1070223 0.25667265 0.5127421 2.7667482 0.18799843 1.7732669 -0.68930537 -0.1759961 2.4151027 -0.35340813 1.3246974 -1.8409796 -0.010021719 -1.6345702 1.1625417 0.98745704 -0.32244408 -0.16138653 -0.88961935 -0.4321857 -1.4111322 0.28908527 1.8928788 -0.42174873 -1.8781506 -0.12565666 0.19214761 0.84692335 -1.0821437 2.7945843 0.92324716 2.4639792 -0.9247178 1.2118403 -1.3341942 2.6410856 -1.9454399 -1.5644923 -0.21624288 -0.36840641 0.23870002 -1.0008863 -1.4691446 -0.38540408 1.1424625 0.9466295 -3.228096 1.5460635 1.5841851 0.2942914 1.8720239 0.14813754 2.0346076 -2.2958415 -0.5906284 2.2995958 -0.7233322 -0.98198766 0.34286335 -0.7851537 -1.1171857 -0.9710432 1.9949138 0.38454863 1.9793365 -0.7107581 0.22089073 -0.5445542 0.40315863 0.42238516 0.80906725 -1.5808294 -0.76145834 -1.8008646 2.2785583 0.62694603 -0.87459713 -0.31821206 -0.6056923 -2.5913308 1.4266748 0.4294522 0.5331352 -1.9968708 -0.2902223 0.9757188 -1.1824723 2.4310915 -0.40542167 0.5746593 -0.19111545 0.16070263 -1.1638336 -2.937883 -1.4462231 1.521976 -0.11882955 -0.81271166 -0.33683598 0.5030605 -1.3481691
http://dbpedia.org/ontology/BaseballTeam 1.5118232 -0.20159759 -0.10306984 -1.6212251 -1.406825 1.3127245 -0.0027943528 -2.7741356 -1.0779517 1.485132 -1.278065 0.6261142 -1.9712044 0.43015692 0.7252968 -1.140209 0.4301198 1.7371628 -1.3865467 2.1812503 1.2265015 0.3165674 -1.4048932 1.4396483 -1.7677763 1.2298827 -1.0917585 -1.9606636 0.48044175 -1.7350924 -0.6624319 0.30294997 -0.8139489 -1.4315016 0.1968226 1.2061481 -0.9298798 -0.7797516 0.23447753 0.49134916 0.7313522 -2.6872673 0.0128516 0.71136445 -0.5137242 -0.21339811 -0.9600029 0.70597607 -0.5386181 -0.87302697 0.5071676 0.9084223 0.20573688 0.09241967 2.1238592 -0.07338516 -0.34565648 0.37579864 0.40869218 -0.49295387 1.3167772 0.8830691 2.4001951 0.18266405 0.7656417 -0.42262545 -0.14779842 0.6441833 -0.18394463 -0.4338059 0.6470644 0.22139758 -1.7815027 0.2306289 1.905947 -1.2111229 -0.45616633 1.9418768 0.8723685 0.66865575 -0.92291373 -0.05576456 -1.0239508 0.7334152 0.87814534 -0.925022 0.4501905 -1.4301214 0.5884988 0.51873344 0.22808138 -0.84093225 -0.26624173 -0.50778115 -0.419796 -0.7878594 -1.0229629 1.6375202 3.102414 -0.84819525 -0.7816118 1.1131047 0.7262673 2.1956098 0.07674463 0.054270964 0.7757847 2.50717 -0.35652113 0.8004008 -0.12626664 -0.14620832 -2.8941221 0.24813393 2.0337803 1.2455674 -1.0341467 -0.95274603 0.83293885 -0.10086125 1.1934271 1.5829195 -0.41238764 -3.370191 1.4408022 -0.5916366 -0.3601363 -0.9311865 -0.74034864 0.41779026 0.55439204 -0.14708175 0.10859711 0.5741456 1.0807499 -0.37324423 0.10823633 -0.5379151 -0.66208375 2.7443554 -1.2335812 0.038079537 -1.3159623 1.7847314 0.06475172 -1.951246 1.6392615 -0.5375958 1.5803651 1.309466 1.3059205 1.2304653 -1.2141808 -0.4090312 1.3896697 1.9819819 -0.3937493 -0.5349239 -1.4465604 -0.31175438 -0.36905244 -0.13434874 0.24917856 1.4381081 -1.5942041 -1.4170161 -0.07691967 -1.1080635 0.043692138 0.9920987 -0.45471242 -0.3239356 -0.5564334 0.97270036 0.6142899 -1.927009 -0.16286924 -0.46828678 -0.9806331 -0.12874107 0.526041 0.07807125 -0.79504734 -1.4134756 1.2801701 -0.00154094 2.163552 -0.020211898 -1.5224406 -1.426378 0.017287616 -1.7396402 -2.1750665 -0.7454475 0.14795837 -0.38757902 -0.48065275 -1.5480818 -0.13210303 -2.4929867
http://dbpedia.org/ontology/Hotel 1.8226044 -0.2397899 0.26156294 -0.39341974 0.016789835 1.9459585 1.2441504 -0.74410605 -2.0013664 -0.4089016 -0.25752205 0.7477658 -0.48200724 1.4345063 0.25765833 -0.19908652 0.29915962 2.100616 0.2181524 1.2334461 0.29663563 -1.1400566 -2.661679 0.21717107 -2.668251 0.6865667 -0.5376485 -0.4758679 1.8160697 -0.975517 0.9403713 -1.3624566 -0.016170397 -0.80169237 -0.88529074 1.6423352 -0.7868634 -0.8874192 -0.1554246 0.4568674 1.061859 -2.2874048 -0.9833948 -0.1692031 -0.9911995 0.1407445 0.39507967 -1.1423683 0.56278086 -0.79552704 2.4829454 1.3328578 -0.0661651 0.5562882 1.1483762 0.44102108 -0.73194104 -0.34790504 -0.2195107 0.7183085 2.1443906 1.1136446 1.547196 0.48784426 0.980335 -0.30558845 -1.3310641 -0.12797973 -0.12616208 -0.40421933 -1.1462532 -0.6071811 -0.80094236 0.27494398 1.6309518 -0.6771267 -0.39378208 2.3457515 1.0687536 0.3319274 -0.7325369 -1.143826 -0.6668224 -0.7497976 0.4167967 0.18954675 0.062297776 -1.6614134 1.1145214 -0.6197166 -1.4521755 -1.4374831 -0.4541895 -1.6243125 -0.84561884 0.4915123 -1.838738 1.8261315 2.2559037 -2.1833634 -0.0553041 -0.30382368 2.1184971 1.2300012 0.5015449 1.3283973 0.57206327 1.6225847 -1.56239 1.5722494 -1.9071091 -0.7930955 -0.60376275 -0.23548083 0.22752522 0.026328953 -1.655519 -1.0319058 -0.14491718 -0.42879626 2.3154833 -0.1623367 0.5883811 -0.98420024 0.8448687 -1.6419902 0.2164579 -0.44220677 1.1815289 0.51526546 0.5172702 -0.51345134 1.0117576 0.56302154 1.7432344 -2.5668082 -0.38043153 -1.0551553 0.8209258 -0.12769231 -0.9119357 -0.31966582 0.6907154 1.3227316 2.1581392 -0.7952204 0.72740746 0.42618418 -0.57765913 0.84195244 1.1027843 0.99818325 -1.0034304 -0.31089112 1.3559633 0.5448124 -0.5642978 -1.2632004 -1.0500878 -1.5064 -1.2211043 1.6597046 0.6420649 1.4117719 -0.4485263 -0.37857386 -0.36030445 1.1777683 1.0728451 0.24585548 1.2644724 -0.8516666 -0.49112403 0.06913397 0.17785865 -0.3868293 -1.4453219 -1.5747708 -2.0504804 1.2053146 -0.6102507 1.3959007 -0.77375025 -0.9544592 0.5569341 1.2102932 1.5778263 -1.4253771 -0.41489705 -0.07410676 -0.9299458 -1.9997389 -2.2277575 -0.4064055 -1.8463054 0.9246412 -1.9522327 -1.3490298 -1.3018755 -0.832872
http://www.ontologydesignpatterns.org/ont/d0.owl#Activity 1.2263504 0.037635654 -0.2600705 -0.5979745 1.006156 1.8437649 -1.3163236 -0.86304307 -0.86253566 0.37702194 -1.2545167 0.032860182 -0.21820438 -0.052380238 0.13342446 0.41079837 0.22086187 1.1548702 -0.81369567 0.42679974 0.99203306 -0.14145866 -0.7640881 1.6312066 -1.4068786 -0.6553036 -1.1044283 -1.5960829 2.1948383 -0.89739496 -0.18022773 -0.65806395 -0.59900075 -0.27512965 0.2767416 0.7720302 0.31222177 0.6838779 0.74531937 0.85175276 0.04884653 -0.9256709 -0.8193791 -1.1148868 -1.2199334 -0.6620733 1.6221315 -1.2267759 1.1765968 -0.47663128 1.1402249 2.1264498 -1.7091073 -0.0432907 2.5825026 -1.1270549 0.3388716 0.3741467 0.21288213 -1.6370842 1.4421636 -0.64493454 2.2729328 0.7543155 -1.1416817 0.0004282421 -0.24843211 1.1966105 -1.0282944 -0.14262596 -0.10182621 -1.9944612 -2.1292539 1.9310637 2.1398 -0.24479444 0.9754356 2.2835608 0.86230004 0.5341382 -0.95430326 -0.60258365 0.2087582 -0.046351634 -0.9091913 0.62175506 -1.4994434 -1.2299939 1.6920618 0.89357084 -0.7617818 -0.2195403 1.1089932 0.054879006 -1.0680001 -0.20952608 -0.5301952 0.8101989 1.5289671 0.29457298 -0.8626901 -1.8434879 -0.023875572 0.2552974 0.40335393 0.5613452 1.5575978 1.0956116 -1.7979535 1.3253933 -1.5390632 -0.32836375 -1.9949232 -0.22985333 0.7899794 0.6094066 -1.5261761 -0.6907446 0.61927646 0.5913176 -0.17990273 2.1777434 -1.1919945 -1.6596651 0.09814362 0.48269254 1.0389253 -1.6239197 0.47553185 0.11194779 0.15452555 0.0429318 -0.5089922 0.759612 -0.17218369 -1.1181806 0.4298621 -0.5365072 0.26679778 1.863818 -2.495397 -1.9042488 -0.37152418 0.3126269 0.60372967 -1.6956024 -0.54922926 0.65153056 0.16785352 0.09298764 0.23354857 1.5841972 -0.6063493 -0.8822775 0.8317207 0.544575 -0.69765717 0.49918884 -0.5854738 -1.309016 -0.18414329 0.43640316 -0.80255896 -0.1287512 -1.2819414 0.3553777 -0.45944586 -1.1444472 0.8649448 -0.24729154 -0.40011218 0.21530746 -0.38169158 0.89868695 -0.67609614 -1.8027303 -1.0613084 -1.1320978 -0.6999585 1.305421 -1.3757915 0.009060802 -0.46034294 -1.3162311 0.08553509 1.2037356 0.6839286 0.3446563 -0.3215857 -0.95773286 -0.10304548 0.97415614 -0.95923966 0.25101843 -0.04848706 0.12711123 1.0703568 -0.43254375 -1.2729592 0.1473409
http://dbpedia.org/ontology/Chef 1.0569364 -1.0710883 -1.3148986 -0.2620604 2.044553 1.7409338 0.71095294 -0.21955599 -1.2937768 -0.030894537 0.5108327 0.29081604 -0.15846281 1.5877305 0.87317675 -0.73646504 0.46508282 2.213257 -1.6079026 1.3964642 0.20015876 1.0838809 -1.1853746 0.65178233 -2.550596 1.6910598 -0.31651735 0.037326403 1.6080627 -1.197348 -1.0187124 -1.7249337 -1.2252018 0.9336324 -0.77484584 -0.31734648 -0.49553588 -1.3701509 0.28440177 0.4971941 -0.33365935 -1.5379175 0.049963553 0.6090826 -0.9115816 -0.09048718 0.9621218 -1.553919 1.0246495 -1.4685012 0.3120136 -0.28396317 -1.4604295 0.27049154 1.3596829 -0.11710983 0.35566023 -1.4785528 -0.4414254 -0.5079142 0.9174406 1.6102309 1.5654398 2.02304 0.81205964 -0.44454947 -0.6287765 -1.7200097 0.2823553 0.758748 -0.3216318 -0.6724777 -2.2327185 0.072493665 2.7264202 -0.15038557 -0.54069626 1.3278321 0.36116388 -0.33297855 -1.1162664 -1.6341809 0.8019022 0.11201621 0.7939762 0.4000444 1.1644725 -1.8108451 1.421999 0.7775423 -1.0806624 -0.98034126 -0.035078198 0.45735127 -0.867748 0.6106429 -1.2707307 -0.5552014 2.0069287 -1.2873071 0.099141546 -0.3876225 2.4395537 0.76256055 0.9929543 -0.58522713 1.0336506 1.9500315 -1.3463746 0.744117 -1.9662886 -0.1286021 -1.007001 0.055609938 -0.050647713 -0.26398188 -1.573727 -0.2001608 0.26875317 -1.3226146 0.5566681 1.7646532 -0.74445593 -1.9363909 1.0111476 0.1200781 -0.1810419 -0.365319 1.045751 0.46868005 2.0408618 -1.6843562 0.122785494 0.3005755 2.4938612 -1.5777553 -0.92141885 -0.75539476 0.048167568 0.60874546 -0.9205314 -1.3443877 -0.7263293 0.5849979 0.3573363 -3.3932662 0.717235 -0.28333834 0.15016447 1.5272299 0.7588959 1.5987296 -1.8181195 0.62375325 2.0449913 0.7585008 -0.06800727 -1.2493932 -0.50441486 -1.6612716 -2.1777756 0.27263397 0.4409803 0.71801907 -0.7310266 -0.82263726 -0.5164851 -0.051276177 0.93927497 -0.47388127 -1.0797613 -0.58370423 -1.3403162 0.8933918 0.60594124 -0.23784405 -0.6116985 -0.6702756 -1.357152 0.37930033 0.5932466 0.9416335 -1.2062756 -1.3259763 0.46831572 -0.6847009 1.6124932 -1.329328 0.094917625 -1.1618875 -0.8250777 -0.64412093 -1.5423372 -0.91621023 0.12496728 -1.1257392 0.31606448 0.2262871 -0.38840112 -0.27279145
http://dbpedia.org/resource/WindEurope 0.6721803 1.6353117 0.5487338 0.020041866 0.44068232 0.34660238 0.08385834 0.40676087 0.692822 0.82477325 0.19712907 -0.44599965 -0.5520019 0.25819302 -0.73361087 0.78310364 -0.4791782 0.34668148 -0.5812306 0.13377166 0.020651385 -0.45295966 -0.15435249 -0.16643143 -0.06510279 0.5723336 0.037146233 0.04648465 0.3160017 0.54899883 1.146059 -1.2393115 -0.23825322 -0.54693776 0.7883598 -0.3665133 0.4125715 0.5455797 0.123997875 -0.34055403 0.60434014 0.09345331 -1.059721 -0.36284867 -0.7439646 1.0129544 -0.6521264 0.92493004 -0.38872385 -0.34375003 0.87083733 1.5189599 0.22904496 -0.6439461 -0.26528192 0.33790308 -0.16144744 0.31928483 -0.34811282 0.9600381 0.49610096 0.67296445 0.90355736 -0.264362 -0.23904447 -0.47776294 -0.69262964 0.15791346 -0.082121134 0.45787764 0.719901 0.04408441 0.18700895 0.5916339 -0.782487 -0.37366492 -0.6659698 0.12791324 0.31144342 -0.5885155 1.0318651 0.5189837 0.403619 -0.040825453 0.9738534 -0.7434399 -0.031974994 0.01322819 -1.3758986 1.1173005 -0.6811955 0.12494978 0.7843539 0.046571225 -0.4080288 -0.41320986 -1.0090759 0.19505647 -0.25386828 -0.18432982 0.3027914 0.7276686 0.7432585 0.90104854 -0.26994392 0.53697324 -0.33729693 0.07797513 0.6532466 -0.2976225 0.26235527 0.44466045 -0.59346277 0.13461252 -0.24954909 -1.012958 0.13893348 -0.16388932 -0.17004949 1.0905051 0.30940905 0.16519968 0.5636989 -0.18941729 0.7270402 -0.14212777 -0.31100765 -0.4612605 0.15439308 -0.3218392 0.6473892 0.011624038 1.0723602 -0.008932685 -0.6170028 0.21868779 0.9744153 -0.28255448 -0.2426978 -0.18795781 -0.25421584 0.41727233 -0.5523369 0.6141181 0.1635296 0.5048371 -0.8838045 -0.17082213 0.1505608 0.30509233 -0.25081244 0.40104088 0.26518592 0.10887311 0.39922777 -0.5965059 -0.616776 0.21339706 -0.6059528 -0.4902368 0.4260874 -0.4019209 0.0074584414 -0.9088426 -0.92533803 -0.3085162 -0.17799442 -0.18880877 0.36359638 1.0458744 -0.7488627 0.7910223 -0.8990611 0.1906829 0.00988056 -0.20719421 -0.24069728 -0.24209909 -0.35466757 0.25668395 -0.6872988 -0.50243425 0.40163007 -0.089329764 0.4953104 -0.7894632 -0.039973907 -0.06083404 -0.33485335 -0.7402701 -0.18454477 0.020680832 -0.05936364 -0.058831703 -0.3917738 1.2309462 0.1948934 0.2237748 -0.26712817 0.09504514
http://dbpedia.org/resource/European_Prize_for_Literature -0.2629219 0.4310345 -0.012705052 -0.69877243 -0.8344547 0.10411542 0.17064688 -0.14709683 -0.49233097 1.0958536 0.4303762 -0.50148964 -0.07730134 -0.12603027 -0.30009964 0.22942993 0.44800353 -0.695546 0.31167847 -1.0564414 0.32745597 -0.07489224 -0.4851707 -0.060853314 0.12305089 1.0388626 -0.074370064 -1.1423714 -0.24365686 0.5339002 -0.57502294 -0.1453444 -0.1794147 -0.011565065 -0.046180245 -0.5657572 1.1451176 -0.26637626 -0.5002438 -0.13855657 0.60298216 -0.0137075875 -0.24170801 -1.1898937 -0.44201487 0.39082402 0.27718863 0.6581845 -0.7383073 0.47097838 -0.5857935 0.99342626 0.51421374 -0.24523188 0.008915566 -0.64314204 0.074316435 -0.42891604 -0.43106043 -0.8371524 0.056177244 -1.02984 0.18708089 -0.3022244 -0.593702 -0.20839234 -0.12596391 0.4786611 -0.8909835 -0.51689166 0.011114763 -0.3202176 -0.43729022 0.23033045 0.060983483 -0.55467635 -0.5694975 -0.44308355 0.78934455 0.3361631 0.37553826 1.5244915 0.75111717 1.0437874 -0.15239264 -0.64416754 -0.23425046 -0.7949909 -0.13840397 0.011884982 -0.517197 0.6811011 0.30759725 -0.055779636 0.37046036 0.34033024 0.42273384 0.23747338 0.4635751 -0.23850949 -0.27438146 0.63789773 -0.24945953 -0.113724425 0.4147691 -0.730632 -0.94582725 0.26549268 0.58696353 -0.5059191 0.25514638 0.7514077 -0.020270117 0.12980172 -0.06943067 0.5663549 0.060895465 0.13547406 0.33931053 0.42170906 -0.3991237 -0.6134926 0.2282963 0.049251664 -0.036599964 -0.7649348 1.0199684 -1.1351151 0.4727149 0.7227444 0.21627776 0.0976306 -0.33503908 0.50368005 -0.75813323 0.095740594 -0.31138563 0.14294061 0.07278689 0.31357822 -0.2554061 0.19295831 -0.509679 0.6425114 -0.61868864 -0.12848659 -0.52403086 -0.07758654 -0.045979477 -0.8064797 -0.95500654 -1.020659 -0.051276222 -0.5702823 0.79483134 0.18901058 -0.47961095 -0.08102038 -0.46471432 0.84133667 1.056852 -0.068235874 0.3586664 -0.8927634 0.019741543 0.1310833 0.413475 -0.4958936 -0.1366181 0.62862515 0.033558477 -0.808264 0.28747654 -0.37954402 0.9063226 0.14657511 -0.2785092 0.40803838 0.59581536 0.2538822 -0.08750384 -0.08212962 -0.78822184 1.1490066 -0.2829175 -0.47947618 -0.8161667 -0.7334167 -1.1120921 -0.34258226 0.1648281 -0.06612304 -1.0950555 -0.10107238 -0.018461224 0.29963914 -0.4663928 -0.20663995 0.6868385 -0.32753944
http://dbpedia.org/resource/European_Montenegro 0.52688056 -0.0091810655 -0.933869 -0.58957815 -0.8324888 0.4517049 0.8498816 0.76882696 0.7244914 0.27679548 -1.0696582 0.43996415 -0.469022 0.6520429 0.60571647 0.9356287 -0.5745164 0.4603655 0.25644293 0.15123396 0.70411426 -0.30189815 0.24009839 0.8562019 -0.25728753 0.2453027 0.40745258 0.6789213 -0.78706425 -0.18630423 0.23464581 -0.8907438 0.30759776 0.24251793 0.6943875 -0.7886197 0.106200315 0.021587063 0.090562806 -0.8455782 0.1781329 0.11088561 -0.27765837 -0.40932593 -0.43192577 0.15708847 -0.7788322 0.89997494 -0.07523659 -0.62798905 -0.009855406 0.3884625 1.2911842 0.37758985 -0.6286288 0.13876614 0.1727908 -0.13652611 -0.12082478 -0.19122241 0.17555948 -0.051893536 -0.23555222 -0.3163015 0.6159857 -0.024786744 -0.5249519 -0.9643018 -0.24878801 0.6692742 -0.1575705 -0.36278087 1.0678806 0.17110707 0.42896026 0.27984363 -0.3653845 0.18504336 -0.08270665 -0.2921168 0.56499493 -0.69634825 0.7806742 0.4879988 0.5284132 -0.5589219 -0.35143945 -0.6987535 -0.9483028 0.090601176 -1.2054508 -0.4288961 0.41651392 -0.1739026 -0.2695475 0.73149574 -0.57120883 0.97644246 0.23524678 -0.7753614 1.3421979 0.039009627 0.34201452 1.2071491 0.057051457 0.3822537 -0.61453724 0.1723083 -0.28439534 -0.49358168 0.084563896 0.014517911 0.3025681 -0.36326158 -0.16107066 0.016854422 0.49954078 -0.45407915 -0.09518399 0.16421093 -0.054731715 -0.083659716 0.32210934 0.8442332 -0.109515645 0.8650741 0.6148048 -0.48718622 -0.65445024 0.0052583185 -0.016462604 -0.27185953 0.91057664 -0.7037293 0.13869064 -0.0084391 0.17761716 0.54570526 1.0802757 -0.4050723 -0.19358271 0.5138134 0.41126862 0.08510872 0.65370053 0.6318337 -0.6635957 0.62881577 0.5856985 -0.04669366 0.46078107 0.20479938 0.04777922 0.602208 0.19785334 -0.48844853 0.015958479 -0.36861125 -1.1970915 0.33290845 -0.596117 0.20611578 0.54775435 -0.3215527 -0.37187365 -0.584625 -1.1631774 -0.19397011 0.39774892 1.5732518 -0.1710284 -0.7093196 -0.51194906 -0.5755989 -0.2751847 0.0364665 0.4381979 -0.06740853 0.8341843 0.030994639 -0.076850995 -0.18529911 -0.31669194 -0.116738915 -0.9003168 0.95303434 1.0100031 0.36108857 -0.1867571 0.38723588 -0.48236415 0.24737075 0.23959243 -0.37441054 1.0284792 0.11596447 -0.009278384 -0.41530213 -0.5016375 -0.14409411
http://dbpedia.org/resource/Aero_East_Europe -0.32192212 -0.79060507 -0.24742964 -0.7688967 -0.25883833 0.27775848 -0.2941953 0.9027458 0.7696408 0.50674725 -0.74243253 -0.92578083 -0.645897 -0.55313313 0.8620077 -0.49943653 0.26225352 -0.44758707 0.15981337 0.036872905 0.34421277 -0.15169209 -0.1709043 0.60975766 0.64291257 0.84866345 0.50932425 0.77943337 -0.27501312 -0.7986511 0.18913278 -0.12784775 -0.0077564972 -0.08851415 -0.22905724 -0.010002231 -0.28104702 -0.057593536 -0.35221252 -0.6083773 -0.59688175 -0.65613985 -0.6070837 -0.0037671234 -0.8064776 0.21244797 -0.9548329 0.62300485 0.3652069 -0.67501456 -0.59387714 0.23005693 -0.37019306 0.2819902 1.2319661 -0.3546079 0.23111469 -0.25447425 0.26935732 -0.24851601 0.60927325 0.28959194 -0.4183879 0.13532238 0.28872877 -0.3643077 0.08520133 0.012059104 -0.07491015 0.0031597672 0.18565682 0.42809883 1.0095613 -0.011077645 -0.5041212 -0.73292404 -0.4832312 -0.37468228 0.12945318 0.7510707 0.21215606 -0.7124313 0.5069944 0.80741763 0.35010186 0.21440484 0.1280896 -1.3325838 -0.28928015 0.2706771 -0.61213344 0.54769087 0.20164247 1.3197361 -1.0364741 -0.075535074 -0.7396521 0.2189568 1.4971458 -0.0684901 0.66012967 -0.02628291 -0.37850082 0.038021628 0.063652694 -0.074306026 0.7504131 0.1648791 0.44385153 -0.6921142 0.16822873 0.23043656 -0.8798058 0.89495206 -0.12315141 0.5227394 0.31872734 0.13495307 0.21546695 0.5705553 -0.2931037 -0.16991569 0.09535367 0.6643214 0.0731266 0.1387614 0.40767896 0.34413415 -0.615627 0.35241565 0.78699076 -0.4083299 0.49029136 0.50964946 0.04425132 -0.07322292 0.15002513 -1.5962179 -0.27640584 0.32756618 0.21266507 0.27139932 0.5617346 0.18081544 0.54616576 0.5942096 -0.26798457 0.0731555 0.67570883 -0.19015586 0.26617113 -0.70804965 0.77078766 0.3978314 0.6748664 -0.5119065 0.9448406 -1.7019407 -0.53768665 -0.26246637 0.8282475 -1.0660895 0.72095394 -0.39679065 -0.038265515 0.5712336 -0.032118253 0.72697634 0.27457747 -0.070622586 -1.10477 -0.45833787 -0.07693064 0.47154638 -0.119418465 -0.29672325 0.39470682 -0.8256772 -1.0528202 -0.3770284 0.8588214 0.45418707 0.22136748 -0.33565423 0.024614962 0.08177331 0.8631002 0.90947413 0.13700384 0.74096787 -0.34340674 0.16572458 0.010385166 0.39533007 0.06292794 -0.33075616 1.0357668 -0.2697076 -0.17729533 0.10612237
http://dbpedia.org/resource/Association_of_European_Schools_of_Planning -1.0437856 0.26268998 -0.09866169 -0.64757246 0.2830357 0.739222 0.3144544 1.2030069 0.14806993 0.6545074 -0.07412641 -0.5012296 0.21069644 0.0021185302 0.36386725 0.03748507 -0.5829595 -0.5996419 0.390743 0.85293263 0.8257259 -1.6961839 -0.21128276 0.3243494 0.18031633 1.3555951 -0.058403384 0.40562367 -1.1424912 0.65297407 0.94978386 -0.2885817 -0.43705648 -0.6934247 -0.032623846 0.20878436 -0.28073543 0.7360949 0.5812376 0.06504975 0.24879362 0.468036 -0.61510885 -0.30266297 0.028268773 0.40029326 -0.7561965 0.5679612 -0.64475465 0.24547248 -0.174093 0.34227958 0.06473453 -0.13556473 0.35961184 -0.32649022 -0.20136924 0.18972519 0.14341044 1.0061349 0.8455706 -0.59033394 0.61494017 -0.5197009 -0.3155053 0.2783679 0.028917875 -0.03032992 0.48734432 0.89976573 0.030889148 -0.12839243 0.6234865 -0.0789383 -0.4920008 -0.6929691 -0.3514055 -1.4967918 1.1097738 0.18127763 1.0903913 -0.64637625 0.63171124 -0.14308366 1.1665926 -0.2751259 0.7523746 0.18346909 -1.452968 -0.52602077 -0.7126158 0.78074014 -0.0026990776 0.87229306 -0.654111 -0.44214892 -1.1922356 -0.038652625 -0.39602757 0.5490104 0.14766142 0.16581081 0.097381495 0.46979994 -0.4291003 0.6922316 0.42708886 0.0419544 -0.19814977 -0.6559706 0.05086555 0.65229297 -0.7272878 0.5813081 -1.2853884 0.6368316 0.028044373 -0.23892905 0.7221554 0.71235406 0.6521607 0.2971998 0.59204614 0.6628273 0.3598019 -0.33740178 1.5608848 0.24922109 -0.45547912 -0.095520854 -0.063744545 0.7949756 1.0561717 -0.29388806 -0.102217846 0.19399257 0.89569795 -0.16230585 0.6483965 0.03174767 -0.14741515 -0.7252306 0.5378732 0.20053157 0.9565734 0.81846666 -0.9866768 0.52126944 0.22559546 0.030232705 0.55102015 0.12110045 0.6305421 0.6332885 -0.29753655 0.45815364 0.7422438 -1.6637626 -1.4549396 -0.96584797 0.38723943 -1.17283 0.6940806 -0.054503653 -0.8243311 0.23307163 0.48421794 0.16951339 0.6762633 1.342274 0.3523957 0.50506413 -1.0099055 0.11201103 0.4018845 0.17125146 0.71755886 -0.8345664 0.1313548 -0.63047093 -0.86822635 -0.23634344 0.3420783 0.12646692 0.52502424 -0.2583726 -0.093359575 0.5866028 -0.7700187 0.76900965 -0.51288146 -0.25748956 -0.03291671 0.63043576 -0.756734 0.07922677 -0.09667833 0.20955199 -1.1318716 -0.060438182
http://dbpedia.org/resource/Central_European_Basketball_League -0.20495836 -0.31885302 -1.0690715 -0.37317458 -1.0083985 -0.43608063 0.8069126 1.1838586 0.27019474 0.047546204 -0.806946 0.90294856 -0.24428068 -0.4601674 0.4077608 0.84112275 -0.64887387 -0.24533139 1.6896163 -0.8706055 -0.36606345 -0.22382759 0.18642266 0.30072337 -0.5582531 0.5001668 -0.27919334 0.69131744 -0.7760094 -0.06610697 0.39771295 0.06766436 0.9876405 -0.5183917 -0.39098784 -0.3001398 0.20462817 -0.0076111956 -0.23660496 -0.5007115 -0.020810034 0.1209558 -0.485584 -0.676781 -0.39387244 0.47934943 0.6512698 1.3362266 -0.98827875 0.52078605 -0.90868175 0.30340508 1.0884243 -0.29556528 -0.71054626 0.07366356 0.3946052 -0.19442895 -0.13150015 -0.12828365 0.18499202 -0.16091873 -1.1408478 -0.32197243 -0.47840667 0.019787304 -0.15472853 -0.3968399 -0.7648222 0.191613 0.06970442 -0.65486777 0.72506046 0.12250801 -0.71803945 -0.25446478 -0.6783729 -0.3587027 -0.29512113 -0.16489562 0.5602385 0.46222553 0.6756708 1.2768053 0.113332085 0.15698285 -0.91662043 -0.35288966 -0.5639207 0.20827405 -0.6683015 -0.26924133 0.16343555 0.043471277 -0.05730278 0.42799762 0.47544962 0.4666522 -0.10478668 -0.21268883 1.2208647 0.14666535 0.50971305 0.78750515 1.0142198 -0.68580973 -0.7836983 -0.37770438 0.57989234 -0.95387423 0.6874896 -0.23650919 0.38521045 -0.03872297 -0.4012043 -0.3202195 0.7739721 -0.37855422 0.49779156 1.080532 0.13257606 -0.90765554 0.3418076 0.96684146 0.12488209 0.14800934 0.4328244 -1.2799644 0.10820508 0.14082694 0.45584533 -0.09164785 0.5035971 0.9560344 -0.54665995 -0.21943812 -0.16260421 0.22658369 0.63658357 -0.80502295 0.15561658 0.6804185 1.1858022 -0.14310701 -0.32815477 1.0572639 -0.5038047 1.1331263 -0.0006337217 -0.78672546 -0.42899778 -1.1602343 0.51806766 0.31395388 0.018975602 -0.044362668 0.31207716 -0.02059976 -0.714917 0.066351645 0.3811458 -0.4974323 0.8422319 -0.38297564 -0.18381608 0.48252207 -0.24143882 -0.5603083 -0.456635 1.0853722 -0.014190514 -0.7246712 -0.4039309 -0.1037107 -0.21096514 0.4849844 0.39789096 0.39473456 0.5708551 -0.20957348 -0.38256645 -0.42572913 -0.7276988 0.45475313 -1.4886421 0.20919704 0.19247161 0.373075 -0.21818916 0.55542487 0.047898304 0.32428688 0.3630532 -0.14819084 0.38862625 1.1396583 0.22641377 0.628764 0.28480834 -0.27587456
http://dbpedia.org/resource/Eastern_European_cuisine 0.21623127 -0.0331683 0.52207965 0.56744915 0.04118077 -0.29663783 0.18067658 0.4622886 -0.5912665 -0.3486991 0.71995264 -0.5170166 0.551698 0.14935984 0.08395644 -0.031076234 -0.62078315 0.6999597 0.7360896 -1.0038657 0.28613847 -0.43795916 -0.018216278 -0.3149699 -0.7299161 -0.5676846 0.16368596 0.21930778 -0.5865024 1.0931994 0.4455675 0.7837954 -0.5510936 -0.44338077 -0.16934708 -0.9983388 -0.117727816 0.65811014 -0.13950907 -0.42871588 0.6026075 0.978151 -0.401924 -0.39361915 0.010144122 -0.51643234 0.83890843 0.42004013 0.047424227 0.325345 -1.1623764 -0.678086 -0.1483363 -0.02986985 -1.0001457 0.17041154 -0.8673252 -0.61518764 -0.046734113 -0.42945272 -0.40339774 -0.13806775 -0.8421163 0.0455723 0.6054129 -0.10550369 1.2418696 0.51077694 -1.1376479 0.19450806 -0.17002058 -0.036685973 0.3830358 -0.41392004 0.16651317 -0.5266202 -0.055697627 0.37978473 0.49204102 -0.4970384 -0.06853713 -0.861827 -0.14401522 0.21306811 0.03181395 0.72983104 -0.65151674 -0.9355236 0.6762331 0.12960207 -0.92793036 0.62487936 -0.10073513 0.4474915 -0.15020722 -0.31936595 1.2671489 0.11417872 -0.74180675 0.08953804 -0.33058187 0.15397477 -0.08550674 -0.22012149 0.5721739 0.70713866 -1.0029764 -0.14123118 0.8392792 -0.69368017 0.3857724 -1.0610956 -0.6243463 0.10363869 -0.5116232 0.5612342 -0.21917401 -0.10092041 -0.5389008 0.4473403 -0.14872429 0.76528585 0.8340846 0.25282314 0.7926331 0.9351686 0.16902395 -0.53397125 0.33806148 -0.31243962 -0.9363988 -0.29208356 0.7879211 -0.4327517 -0.083278716 -0.13343248 -0.38665354 0.7551174 0.15478505 -0.052885804 0.70307535 0.20181656 0.12220835 -1.3227623 -0.48271072 0.4943229 -0.9959795 0.43762037 0.38616744 0.37176532 -0.66161495 -0.24480438 0.27271155 0.24158739 -0.9593994 -0.37193546 0.41404697 -0.16842331 0.96195585 -1.0914071 0.86603844 1.285925 0.9048804 0.34311715 0.31324264 0.49402753 0.041442465 -0.43907008 -0.3263645 0.30795965 -0.16285154 -0.10194887 0.32269937 0.31556422 -0.28535596 -0.17457713 0.9204811 -0.43132165 -0.37038854 0.12703656 -0.5956034 -0.7459051 0.6405692 0.21887651 -0.4420677 -0.60357803 0.24049936 -0.88069475 0.3332559 -0.6584822 0.45278758 0.12848158 0.07920171 0.86824924 0.8497294 -0.46531034 0.9110026 0.88155496 -0.3158761 0.9373599
http://dbpedia.org/resource/Europe_(continent) -0.49603114 0.46094447 0.7655444 0.38703734 0.6935231 -0.49877155 1.0173745 -0.43173695 -0.51397043 0.5647981 -0.8127026 0.561866 -0.11455585 0.5961585 -0.39887238 0.75353134 0.21509598 0.29129598 -0.068930045 0.027259266 0.16033785 -0.65454936 -0.3459912 -0.058430146 -0.6643297 0.097185746 -0.60428286 -0.24063778 0.5311871 0.30501887 -0.30833244 -0.5435923 -0.096973106 0.8959182 0.6818451 0.2660605 -0.019866828 0.6037223 0.04221022 0.18126708 -0.004393721 0.5933243 0.12034363 0.5588277 0.05978372 1.1865553 0.44539404 0.2942664 0.6363882 0.24241666 0.14937805 0.6762912 -0.373752 -0.06420015 -0.2631546 0.29969138 0.052137345 -0.05031281 -0.47189423 0.6843733 -1.1250675 0.52839863 1.406844 -0.52322376 -0.48820698 0.039718796 -0.3724166 -0.7476009 0.43967083 -0.6889467 0.101961166 -0.56947964 -0.863811 0.06498615 -0.28089562 0.8476469 0.32583758 0.07949334 0.4784464 0.07918758 -0.050000697 0.5447933 0.22580591 -0.6751424 0.2699657 -0.0011068966 -1.0933496 0.380679 0.6578186 0.39365155 0.44088593 0.15999752 -0.264494 -0.3691352 0.022658441 -0.27425313 0.8423181 0.5036667 -0.12778863 0.21946974 -1.04366 0.2309089 0.6568417 -0.3125277 -0.39479432 0.0933381 -0.39038315 0.38848054 -0.2687039 -0.0041038296 -0.60634583 0.7065548 0.18574807 -0.5114712 -0.13483109 0.47681373 -0.049698696 1.0301185 0.41962546 -0.9414885 -0.32031724 0.010563326 -0.8530993 -0.6635974 0.3618368 -0.14364381 0.143431 0.08146471 -0.18196286 -0.92495483 -0.3072994 -0.70483667 0.16612558 0.20382994 -0.6388318 -0.4862198 0.40298584 0.37945038 -0.0034563483 -0.24845724 -0.47936273 0.8124176 -0.55390066 -0.4585544 0.8147663 0.15988173 -0.13247587 0.17897658 -0.7507409 0.3941652 0.4971518 0.7294514 -0.06943307 -0.089991786 -0.61644244 0.7922424 -0.06313689 1.0361149 0.05210094 -0.50098675 -0.647088 0.20977081 0.18773487 -0.26820084 -0.34916255 -0.09998135 0.07271437 -0.24860053 -0.086180024 1.0040221 0.43980932 -0.13394143 0.31145895 -1.1444105 0.081936836 -0.23268709 0.46241346 -0.03064413 0.6229478 -0.10945103 0.01455769 0.80990076 -1.1586004 -0.4240837 -0.23705177 0.4307351 -0.2966245 -0.6920402 -0.09851919 -0.365915 0.27512577 0.23650934 0.004192972 0.25247365 -0.3406401 -0.08808646 -0.30541083 0.36042884 0.20882879 -0.21180956
http://dbpedia.org/resource/List_of_golfers_with_most_European_Tour_wins 1.0982131 -0.59010535 0.45575324 1.0626099 0.8316783 -0.0996267 -1.1587621 -0.39403096 1.3095862 -0.6031518 -0.1752345 0.41960987 -0.09997452 1.1447357 0.5522886 0.88073146 -0.010453536 0.9649279 0.1242029 0.1054474 -0.40685776 -0.1184339 0.30767927 -1.2001479 -0.4916176 -0.5975803 -0.6553162 1.0864922 0.8361803 1.0965518 -0.7321944 0.9521696 1.2087657 -0.1317849 0.32068896 -0.18652236 0.3909853 0.54670703 0.8060873 -0.2903878 -0.8735807 -0.69699144 0.1896493 0.57647884 0.28512213 0.25404847 0.11933717 -0.19367321 0.3775014 0.100315474 0.7876529 -0.92893726 -0.82500964 0.76950675 -0.18927574 0.38042733 -1.2107852 -0.025430571 0.26521015 -0.31961793 0.2245025 0.021471996 -0.056637384 -0.029650776 -0.2613229 0.4363151 0.26004598 0.4845977 -0.4733983 0.10921416 0.42211387 -0.08851048 0.38967583 -0.3857449 -1.0650796 -0.016338786 0.012067088 0.42546836 0.3831382 -1.0867287 -0.11031659 -0.7239989 -0.15593277 0.29807597 0.3933832 0.56145144 0.9671881 0.66542804 -1.0254279 -0.44547758 0.8377507 0.45160902 0.26484707 0.85319704 -0.036116377 0.37900245 -0.8483218 -0.7742792 0.14203386 -0.080376856 -0.05716411 -1.1164502 1.1900446 0.078251556 0.18654898 0.22789003 0.82351375 -0.31567115 0.67107815 0.2668862 -0.18666938 -0.99812126 0.6295371 0.5753929 -0.7456765 -0.09902841 0.20662533 -0.014852166 0.53507406 0.974184 -0.22635815 0.57364476 -0.4466053 0.083521724 0.29328164 0.069440596 -0.3466287 0.3267077 -0.053334586 -0.37245694 -0.6987203 0.529945 0.7023588 0.56561774 -0.16878961 -0.19891724 -0.592003 -0.41017017 0.5630919 -0.47519493 -1.1641291 -0.13601562 0.6266355 -1.0991267 -0.49908563 0.26691195 -0.19349466 -0.6115063 0.7934667 0.9263155 -0.03329407 0.26652774 0.7853023 0.5695305 -0.87803537 -0.7796318 0.8227322 -0.5143305 -0.2446889 -0.0020112481 -0.26076603 -0.15900767 -0.5851517 0.1163638 -0.5926961 -0.3772725 -0.38559908 0.20713577 0.27687225 0.35309163 0.2778896 0.62269825 0.005655275 -0.7202712 -0.20809244 0.61316687 -0.21409373 -0.5749548 0.9055194 -0.29946738 0.869365 0.6837344 0.71823204 -0.32701576 -0.39877805 0.5785009 -0.14211977 -0.25649607 0.5930911 -0.4373421 0.4530034 -0.23810843 -0.034759007 -0.293762 0.6880579 0.57228637 0.034801777 0.6189494 -0.978272 0.12135957
http://dbpedia.org/resource/2014_European_Table_Tennis_Championships 0.6354293 0.44952896 0.29936025 -0.016932879 -0.2809164 0.12320833 0.6408234 0.75819093 -0.19510868 0.35591763 -0.0043685613 -0.36753333 -0.30347145 0.4085767 0.99344736 0.45676407 -0.74371374 0.1667564 0.14287505 0.57054746 0.34208798 -0.8072714 -0.1298859 -0.87578034 -0.7874567 -0.016784662 0.70957154 0.015730437 1.3120914 0.12441383 1.0354128 -0.34045446 0.6052705 -0.4400059 -0.56365794 0.43384892 -0.34993562 0.5860959 1.1467938 0.050400328 0.9133927 -0.43285674 -0.11064698 0.19299155 -0.42533398 1.1025941 -0.29664052 0.0056298845 0.73198634 0.25534737 0.55925274 -0.25462168 -0.39332807 0.774336 0.10737288 -1.1617689 -0.28781193 0.41796863 -0.19351462 0.1088586 1.2584442 -0.0038112951 0.68936205 -0.5821387 -0.62370545 -0.33551177 0.024317438 0.5976347 -0.81719667 0.48193547 0.4863194 -0.009630858 -0.08329776 0.35208455 0.4179415 -0.56761134 -0.09296529 -0.47200367 0.49885225 -0.9069387 0.5297099 -0.584569 -0.040551838 -0.025348686 -0.72668403 -0.3766737 0.9551311 0.13639861 -0.41639975 0.0286529 -0.93259615 0.1460459 -0.27133092 0.1573381 -1.0651814 0.30226162 -0.5063171 -0.046059906 -0.2855272 -0.73589545 -0.093114264 0.05718891 0.67559433 0.67233866 -0.8899253 1.0252547 -0.2291725 0.52305174 -0.64856684 0.009486818 0.35648885 0.17430155 0.48503473 0.105713606 0.5237295 -0.635953 0.62102073 0.5441081 -0.8219607 0.72864157 0.7148918 -0.21624392 -0.07358246 -0.18366565 0.32342178 -0.09304822 -0.7921741 0.011927573 0.032091368 -0.05353031 0.13207047 1.1321539 -0.09951743 -0.78379613 -0.8750267 -0.5189759 0.043582264 -0.47335604 0.22961357 0.24135739 -0.24104148 -0.68120205 -0.57987 -0.5657758 0.41253725 0.41580912 -0.7814634 0.18235905 0.39999852 -0.64805526 -0.02987678 0.0389991 0.7600265 -0.56952643 0.41199285 -0.45656353 0.2815717 -0.7681446 0.3121825 -0.04237449 0.5364773 0.44281593 0.4044396 0.29625756 -0.29400435 -0.023228195 0.48387447 0.61406404 0.13181336 -0.21837333 0.27604714 0.17741078 -0.0118344575 -0.83451176 -0.48118702 -0.28520182 -0.19016737 -0.84727913 0.23796648 0.70250076 -0.17823467 0.784484 1.0275191 0.85144264 -0.08939533 0.36286542 -0.668763 0.08216703 -0.80955404 0.02362839 0.3812462 -0.22018968 -0.22848389 -0.29575968 -0.11350317 0.2706112 -0.25806803 0.28728235 -0.27972436 1.0065774
